digraph Tree {
node [shape=box, fontname="helvetica"] ;
edge [fontname="helvetica"] ;
0 [label="petal width (cm) <= 0.8\ngini = 0.665\nsamples = 100\nvalue = [33, 31, 36]"] ;
1 [label="gini = 0.0\nsamples = 33\nvalue = [33, 0, 0]"] ;
0 -> 1 [labeldistance=2.5, labelangle=45, headlabel="True"] ;
2 [label="petal width (cm) <= 1.65\ngini = 0.497\nsamples = 67\nvalue = [0, 31, 36]"] ;
0 -> 2 [labeldistance=2.5, labelangle=-45, headlabel="False"] ;
3 [label="petal length (cm) <= 5.0\ngini = 0.165\nsamples = 33\nvalue = [0, 30, 3]"] ;
2 -> 3 ;
4 [label="gini = 0.0\nsamples = 29\nvalue = [0, 29, 0]"] ;
3 -> 4 ;
5 [label="sepal length (cm) <= 6.05\ngini = 0.375\nsamples = 4\nvalue = [0, 1, 3]"] ;
3 -> 5 ;
6 [label="gini = 0.0\nsamples = 1\nvalue = [0, 1, 0]"] ;
5 -> 6 ;
7 [label="gini = 0.0\nsamples = 3\nvalue = [0, 0, 3]"] ;
5 -> 7 ;
8 [label="petal length (cm) <= 4.85\ngini = 0.057\nsamples = 34\nvalue = [0, 1, 33]"] ;
2 -> 8 ;
9 [label="sepal width (cm) <= 3.1\ngini = 0.375\nsamples = 4\nvalue = [0, 1, 3]"] ;
8 -> 9 ;
10 [label="gini = 0.0\nsamples = 3\nvalue = [0, 0, 3]"] ;
9 -> 10 ;
11 [label="gini = 0.0\nsamples = 1\nvalue = [0, 1, 0]"] ;
9 -> 11 ;
12 [label="gini = 0.0\nsamples = 30\nvalue = [0, 0, 30]"] ;
8 -> 12 ;
}