digraph Tree {
node [shape=box, style="rounded", color="black", fontname="helvetica"] ;
edge [fontname="helvetica"] ;
0 [label="TEMP <= 26.9\nsquared_error = 296.6\nsamples = 7210\nvalue = 21.5"] ;
1 [label="Humidity <= 84.4\nsquared_error = 336.1\nsamples = 4286\nvalue = 27.0"] ;
0 -> 1 [labeldistance=2.5, labelangle=45, headlabel="True"] ;
2 [label="O3 <= 22.8\nsquared_error = 323.1\nsamples = 3959\nvalue = 28.4"] ;
1 -> 2 ;
3 [label="squared_error = 325.7\nsamples = 1763\nvalue = 24.3"] ;
2 -> 3 ;
4 [label="squared_error = 297.4\nsamples = 2196\nvalue = 31.6"] ;
2 -> 4 ;
5 [label="NO2 <= 18.2\nsquared_error = 177.8\nsamples = 327\nvalue = 10.0"] ;
1 -> 5 ;
6 [label="squared_error = 65.0\nsamples = 211\nvalue = 7.3"] ;
5 -> 6 ;
7 [label="squared_error = 352.2\nsamples = 116\nvalue = 15.2"] ;
5 -> 7 ;
8 [label="O3 <= 28.8\nsquared_error = 130.1\nsamples = 2924\nvalue = 13.5"] ;
0 -> 8 [labeldistance=2.5, labelangle=-45, headlabel="False"] ;
9 [label="NO2 <= 21.5\nsquared_error = 49.6\nsamples = 1824\nvalue = 8.3"] ;
8 -> 9 ;
10 [label="squared_error = 43.1\nsamples = 1774\nvalue = 8.0"] ;
9 -> 10 ;
11 [label="squared_error = 127.6\nsamples = 50\nvalue = 22.5"] ;
9 -> 11 ;
12 [label="CO <= 0.4\nsquared_error = 147.5\nsamples = 1100\nvalue = 22.0"] ;
8 -> 12 ;
13 [label="squared_error = 73.2\nsamples = 530\nvalue = 17.2"] ;
12 -> 13 ;
14 [label="squared_error = 175.5\nsamples = 570\nvalue = 26.6"] ;
12 -> 14 ;
}