digraph Tree {
node [shape=box, style="rounded", color="black", fontname="helvetica"] ;
edge [fontname="helvetica"] ;
0 [label="TEMP <= 25.9\nsquared_error = 146.5\nsamples = 333\nvalue = 27.3"] ;
1 [label="CO <= 0.4\nsquared_error = 42.6\nsamples = 147\nvalue = 38.0"] ;
0 -> 1 [labeldistance=2.5, labelangle=45, headlabel="True"] ;
2 [label="TEMP <= 22.8\nsquared_error = 24.2\nsamples = 15\nvalue = 26.3"] ;
1 -> 2 ;
3 [label="TEMP <= 21.4\nsquared_error = 1.7\nsamples = 2\nvalue = 35.8"] ;
2 -> 3 ;
4 [label="squared_error = 0.0\nsamples = 1\nvalue = 35.0"] ;
3 -> 4 ;
5 [label="squared_error = 0.0\nsamples = 1\nvalue = 38.0"] ;
3 -> 5 ;
6 [label="NMHC <= 0.1\nsquared_error = 8.3\nsamples = 13\nvalue = 24.5"] ;
2 -> 6 ;
7 [label="TEMP <= 25.1\nsquared_error = 2.9\nsamples = 9\nvalue = 22.9"] ;
6 -> 7 ;
8 [label="NO2 <= 11.4\nsquared_error = 0.2\nsamples = 3\nvalue = 24.3"] ;
7 -> 8 ;
9 [label="squared_error = 0.0\nsamples = 2\nvalue = 24.0"] ;
8 -> 9 ;
10 [label="squared_error = 0.0\nsamples = 1\nvalue = 25.0"] ;
8 -> 10 ;
11 [label="WindSpeed <= 2.7\nsquared_error = 2.4\nsamples = 6\nvalue = 21.9"] ;
7 -> 11 ;
12 [label="WindSpeed <= 2.5\nsquared_error = 1.6\nsamples = 5\nvalue = 22.5"] ;
11 -> 12 ;
13 [label="CO <= 0.3\nsquared_error = 0.4\nsamples = 4\nvalue = 22.0"] ;
12 -> 13 ;
14 [label="squared_error = 0.0\nsamples = 1\nvalue = 21.0"] ;
13 -> 14 ;
15 [label="Humidity <= 70.7\nsquared_error = 0.2\nsamples = 3\nvalue = 22.2"] ;
13 -> 15 ;
16 [label="squared_error = 0.0\nsamples = 2\nvalue = 22.0"] ;
15 -> 16 ;
17 [label="squared_error = 0.0\nsamples = 1\nvalue = 23.0"] ;
15 -> 17 ;
18 [label="squared_error = 0.0\nsamples = 1\nvalue = 25.0"] ;
12 -> 18 ;
19 [label="squared_error = 0.0\nsamples = 1\nvalue = 20.0"] ;
11 -> 19 ;
20 [label="WindSpeed <= 2.0\nsquared_error = 3.9\nsamples = 4\nvalue = 27.7"] ;
6 -> 20 ;
21 [label="squared_error = 0.0\nsamples = 1\nvalue = 23.0"] ;
20 -> 21 ;
22 [label="Nox <= 17.0\nsquared_error = 0.2\nsamples = 3\nvalue = 28.5"] ;
20 -> 22 ;
23 [label="squared_error = 0.0\nsamples = 1\nvalue = 28.0"] ;
22 -> 23 ;
24 [label="squared_error = 0.0\nsamples = 2\nvalue = 29.0"] ;
22 -> 24 ;
25 [label="CO <= 0.5\nsquared_error = 26.1\nsamples = 132\nvalue = 39.5"] ;
1 -> 25 ;
26 [label="SO2 <= 3.5\nsquared_error = 18.9\nsamples = 36\nvalue = 35.6"] ;
25 -> 26 ;
27 [label="NO <= 2.0\nsquared_error = 12.2\nsamples = 15\nvalue = 38.1"] ;
26 -> 27 ;
28 [label="CO <= 0.5\nsquared_error = 8.6\nsamples = 4\nvalue = 33.4"] ;
27 -> 28 ;
29 [label="TEMP <= 21.4\nsquared_error = 1.0\nsamples = 2\nvalue = 30.0"] ;
28 -> 29 ;
30 [label="squared_error = 0.0\nsamples = 1\nvalue = 31.0"] ;
29 -> 30 ;
31 [label="squared_error = 0.0\nsamples = 1\nvalue = 29.0"] ;
29 -> 31 ;
32 [label="NO2 <= 11.2\nsquared_error = 0.9\nsamples = 2\nvalue = 35.7"] ;
28 -> 32 ;
33 [label="squared_error = 0.0\nsamples = 1\nvalue = 37.0"] ;
32 -> 33 ;
34 [label="squared_error = 0.0\nsamples = 1\nvalue = 35.0"] ;
32 -> 34 ;
35 [label="NO <= 3.7\nsquared_error = 6.6\nsamples = 11\nvalue = 39.2"] ;
27 -> 35 ;
36 [label="Humidity <= 75.7\nsquared_error = 2.6\nsamples = 6\nvalue = 38.1"] ;
35 -> 36 ;
37 [label="Nox <= 21.5\nsquared_error = 1.3\nsamples = 4\nvalue = 37.4"] ;
36 -> 37 ;
38 [label="NO <= 3.1\nsquared_error = 0.2\nsamples = 3\nvalue = 37.7"] ;
37 -> 38 ;
39 [label="squared_error = 0.0\nsamples = 2\nvalue = 38.0"] ;
38 -> 39 ;
40 [label="squared_error = 0.0\nsamples = 1\nvalue = 37.0"] ;
38 -> 40 ;
41 [label="squared_error = 0.0\nsamples = 1\nvalue = 34.0"] ;
37 -> 41 ;
42 [label="NO <= 3.0\nsquared_error = 0.2\nsamples = 2\nvalue = 40.2"] ;
36 -> 42 ;
43 [label="squared_error = 0.0\nsamples = 1\nvalue = 40.0"] ;
42 -> 43 ;
44 [label="squared_error = 0.0\nsamples = 1\nvalue = 41.0"] ;
42 -> 44 ;
45 [label="THC <= 2.1\nsquared_error = 6.8\nsamples = 5\nvalue = 41.8"] ;
35 -> 45 ;
46 [label="squared_error = 0.0\nsamples = 1\nvalue = 47.0"] ;
45 -> 46 ;
47 [label="NO <= 3.8\nsquared_error = 1.8\nsamples = 4\nvalue = 40.8"] ;
45 -> 47 ;
48 [label="squared_error = 0.0\nsamples = 1\nvalue = 43.0"] ;
47 -> 48 ;
49 [label="THC <= 2.2\nsquared_error = 0.7\nsamples = 3\nvalue = 40.2"] ;
47 -> 49 ;
50 [label="squared_error = 0.0\nsamples = 1\nvalue = 41.0"] ;
49 -> 50 ;
51 [label="O3 <= 28.3\nsquared_error = 0.2\nsamples = 2\nvalue = 39.5"] ;
49 -> 51 ;
52 [label="squared_error = 0.0\nsamples = 1\nvalue = 39.0"] ;
51 -> 52 ;
53 [label="squared_error = 0.0\nsamples = 1\nvalue = 40.0"] ;
51 -> 53 ;
54 [label="O3 <= 41.1\nsquared_error = 13.7\nsamples = 21\nvalue = 33.2"] ;
26 -> 54 ;
55 [label="WindSpeed <= 1.9\nsquared_error = 11.3\nsamples = 20\nvalue = 32.9"] ;
54 -> 55 ;
56 [label="NO2 <= 17.5\nsquared_error = 8.1\nsamples = 5\nvalue = 35.8"] ;
55 -> 56 ;
57 [label="squared_error = 0.0\nsamples = 1\nvalue = 30.0"] ;
56 -> 57 ;
58 [label="THC <= 2.4\nsquared_error = 1.6\nsamples = 4\nvalue = 37.0"] ;
56 -> 58 ;
59 [label="squared_error = 0.0\nsamples = 2\nvalue = 38.0"] ;
58 -> 59 ;
60 [label="Nox <= 24.0\nsquared_error = 0.2\nsamples = 2\nvalue = 35.5"] ;
58 -> 60 ;
61 [label="squared_error = 0.0\nsamples = 1\nvalue = 35.0"] ;
60 -> 61 ;
62 [label="squared_error = 0.0\nsamples = 1\nvalue = 36.0"] ;
60 -> 62 ;
63 [label="CO <= 0.5\nsquared_error = 9.0\nsamples = 15\nvalue = 32.0"] ;
55 -> 63 ;
64 [label="CO <= 0.5\nsquared_error = 8.4\nsamples = 12\nvalue = 31.5"] ;
63 -> 64 ;
65 [label="NMHC <= 0.1\nsquared_error = 2.0\nsamples = 2\nvalue = 35.0"] ;
64 -> 65 ;
66 [label="squared_error = 0.0\nsamples = 1\nvalue = 34.0"] ;
65 -> 66 ;
67 [label="squared_error = 0.0\nsamples = 1\nvalue = 37.0"] ;
65 -> 67 ;
68 [label="Humidity <= 72.6\nsquared_error = 6.7\nsamples = 10\nvalue = 30.8"] ;
64 -> 68 ;
69 [label="SO2 <= 6.4\nsquared_error = 0.7\nsamples = 3\nvalue = 32.8"] ;
68 -> 69 ;
70 [label="O3 <= 34.2\nsquared_error = 0.2\nsamples = 2\nvalue = 33.5"] ;
69 -> 70 ;
71 [label="squared_error = 0.0\nsamples = 1\nvalue = 33.0"] ;
70 -> 71 ;
72 [label="squared_error = 0.0\nsamples = 1\nvalue = 34.0"] ;
70 -> 72 ;
73 [label="squared_error = 0.0\nsamples = 1\nvalue = 32.0"] ;
69 -> 73 ;
74 [label="Humidity <= 73.9\nsquared_error = 7.0\nsamples = 7\nvalue = 30.1"] ;
68 -> 74 ;
75 [label="O3 <= 33.3\nsquared_error = 4.0\nsamples = 2\nvalue = 25.0"] ;
74 -> 75 ;
76 [label="squared_error = 0.0\nsamples = 1\nvalue = 27.0"] ;
75 -> 76 ;
77 [label="squared_error = 0.0\nsamples = 1\nvalue = 23.0"] ;
75 -> 77 ;
78 [label="CH4 <= 2.1\nsquared_error = 0.6\nsamples = 5\nvalue = 31.2"] ;
74 -> 78 ;
79 [label="NO2 <= 19.0\nsquared_error = 0.1\nsamples = 3\nvalue = 30.9"] ;
78 -> 79 ;
80 [label="squared_error = 0.0\nsamples = 1\nvalue = 30.0"] ;
79 -> 80 ;
81 [label="squared_error = 0.0\nsamples = 2\nvalue = 31.0"] ;
79 -> 81 ;
82 [label="Humidity <= 75.7\nsquared_error = 0.2\nsamples = 2\nvalue = 32.5"] ;
78 -> 82 ;
83 [label="squared_error = 0.0\nsamples = 1\nvalue = 33.0"] ;
82 -> 83 ;
84 [label="squared_error = 0.0\nsamples = 1\nvalue = 32.0"] ;
82 -> 84 ;
85 [label="NO <= 2.8\nsquared_error = 0.2\nsamples = 3\nvalue = 35.3"] ;
63 -> 85 ;
86 [label="squared_error = 0.0\nsamples = 1\nvalue = 36.0"] ;
85 -> 86 ;
87 [label="squared_error = 0.0\nsamples = 2\nvalue = 35.0"] ;
85 -> 87 ;
88 [label="squared_error = 0.0\nsamples = 1\nvalue = 42.0"] ;
54 -> 88 ;
89 [label="TEMP <= 21.7\nsquared_error = 21.4\nsamples = 96\nvalue = 40.8"] ;
25 -> 89 ;
90 [label="NMHC <= 0.1\nsquared_error = 20.1\nsamples = 56\nvalue = 42.4"] ;
89 -> 90 ;
91 [label="TEMP <= 19.8\nsquared_error = 18.7\nsamples = 20\nvalue = 45.2"] ;
90 -> 91 ;
92 [label="CO <= 0.5\nsquared_error = 9.5\nsamples = 11\nvalue = 48.6"] ;
91 -> 92 ;
93 [label="Humidity <= 72.1\nsquared_error = 20.2\nsamples = 2\nvalue = 43.5"] ;
92 -> 93 ;
94 [label="squared_error = 0.0\nsamples = 1\nvalue = 39.0"] ;
93 -> 94 ;
95 [label="squared_error = 0.0\nsamples = 1\nvalue = 48.0"] ;
93 -> 95 ;
96 [label="Humidity <= 71.3\nsquared_error = 2.6\nsamples = 9\nvalue = 49.5"] ;
92 -> 96 ;
97 [label="WindSpeed <= 2.3\nsquared_error = 0.8\nsamples = 5\nvalue = 48.4"] ;
96 -> 97 ;
98 [label="squared_error = 0.0\nsamples = 3\nvalue = 49.0"] ;
97 -> 98 ;
99 [label="squared_error = 0.0\nsamples = 2\nvalue = 47.0"] ;
97 -> 99 ;
100 [label="Humidity <= 73.4\nsquared_error = 1.2\nsamples = 4\nvalue = 51.0"] ;
96 -> 100 ;
101 [label="Nox <= 33.0\nsquared_error = 0.2\nsamples = 3\nvalue = 50.5"] ;
100 -> 101 ;
102 [label="squared_error = 0.0\nsamples = 2\nvalue = 51.0"] ;
101 -> 102 ;
103 [label="squared_error = 0.0\nsamples = 1\nvalue = 50.0"] ;
101 -> 103 ;
104 [label="squared_error = 0.0\nsamples = 1\nvalue = 53.0"] ;
100 -> 104 ;
105 [label="O3 <= 25.8\nsquared_error = 6.3\nsamples = 9\nvalue = 42.1"] ;
91 -> 105 ;
106 [label="TEMP <= 20.7\nsquared_error = 3.6\nsamples = 2\nvalue = 38.7"] ;
105 -> 106 ;
107 [label="squared_error = 0.0\nsamples = 1\nvalue = 36.0"] ;
106 -> 107 ;
108 [label="squared_error = 0.0\nsamples = 1\nvalue = 40.0"] ;
106 -> 108 ;
109 [label="Nox <= 34.0\nsquared_error = 3.4\nsamples = 7\nvalue = 42.9"] ;
105 -> 109 ;
110 [label="NO <= 3.1\nsquared_error = 1.2\nsamples = 6\nvalue = 42.5"] ;
109 -> 110 ;
111 [label="squared_error = 0.0\nsamples = 1\nvalue = 45.0"] ;
110 -> 111 ;
112 [label="Humidity <= 69.9\nsquared_error = 0.6\nsamples = 5\nvalue = 42.2"] ;
110 -> 112 ;
113 [label="squared_error = 0.0\nsamples = 2\nvalue = 43.0"] ;
112 -> 113 ;
114 [label="Nox <= 28.0\nsquared_error = 0.2\nsamples = 3\nvalue = 41.7"] ;
112 -> 114 ;
115 [label="squared_error = 0.0\nsamples = 2\nvalue = 42.0"] ;
114 -> 115 ;
116 [label="squared_error = 0.0\nsamples = 1\nvalue = 41.0"] ;
114 -> 116 ;
117 [label="squared_error = 0.0\nsamples = 1\nvalue = 48.0"] ;
109 -> 117 ;
118 [label="CH4 <= 2.0\nsquared_error = 14.9\nsamples = 36\nvalue = 41.0"] ;
90 -> 118 ;
119 [label="squared_error = 0.0\nsamples = 1\nvalue = 32.0"] ;
118 -> 119 ;
120 [label="TEMP <= 21.0\nsquared_error = 12.6\nsamples = 35\nvalue = 41.3"] ;
118 -> 120 ;
121 [label="WindSpeed <= 1.7\nsquared_error = 9.2\nsamples = 27\nvalue = 40.2"] ;
120 -> 121 ;
122 [label="TEMP <= 20.2\nsquared_error = 3.5\nsamples = 10\nvalue = 41.8"] ;
121 -> 122 ;
123 [label="SO2 <= 8.2\nsquared_error = 2.0\nsamples = 7\nvalue = 42.7"] ;
122 -> 123 ;
124 [label="SO2 <= 3.9\nsquared_error = 0.8\nsamples = 6\nvalue = 43.5"] ;
123 -> 124 ;
125 [label="CH4 <= 2.0\nsquared_error = 0.2\nsamples = 3\nvalue = 44.5"] ;
124 -> 125 ;
126 [label="squared_error = 0.0\nsamples = 1\nvalue = 44.0"] ;
125 -> 126 ;
127 [label="squared_error = 0.0\nsamples = 2\nvalue = 45.0"] ;
125 -> 127 ;
128 [label="NO <= 6.2\nsquared_error = 0.1\nsamples = 3\nvalue = 42.8"] ;
124 -> 128 ;
129 [label="squared_error = 0.0\nsamples = 1\nvalue = 42.0"] ;
128 -> 129 ;
130 [label="squared_error = 0.0\nsamples = 2\nvalue = 43.0"] ;
128 -> 130 ;
131 [label="squared_error = 0.0\nsamples = 1\nvalue = 41.0"] ;
123 -> 131 ;
132 [label="TEMP <= 20.6\nsquared_error = 0.2\nsamples = 3\nvalue = 39.4"] ;
122 -> 132 ;
133 [label="squared_error = 0.0\nsamples = 1\nvalue = 39.0"] ;
132 -> 133 ;
134 [label="squared_error = 0.0\nsamples = 2\nvalue = 40.0"] ;
132 -> 134 ;
135 [label="Nox <= 31.0\nsquared_error = 10.0\nsamples = 17\nvalue = 38.8"] ;
121 -> 135 ;
136 [label="CO <= 0.5\nsquared_error = 3.5\nsamples = 13\nvalue = 40.3"] ;
135 -> 136 ;
137 [label="THC <= 2.4\nsquared_error = 1.4\nsamples = 6\nvalue = 38.9"] ;
136 -> 137 ;
138 [label="TEMP <= 19.5\nsquared_error = 0.2\nsamples = 5\nvalue = 39.3"] ;
137 -> 138 ;
139 [label="squared_error = 0.0\nsamples = 3\nvalue = 39.0"] ;
138 -> 139 ;
140 [label="squared_error = 0.0\nsamples = 2\nvalue = 40.0"] ;
138 -> 140 ;
141 [label="squared_error = 0.0\nsamples = 1\nvalue = 36.0"] ;
137 -> 141 ;
142 [label="CO <= 0.6\nsquared_error = 1.4\nsamples = 7\nvalue = 41.8"] ;
136 -> 142 ;
143 [label="squared_error = 0.0\nsamples = 1\nvalue = 44.0"] ;
142 -> 143 ;
144 [label="TEMP <= 20.5\nsquared_error = 0.8\nsamples = 6\nvalue = 41.4"] ;
142 -> 144 ;
145 [label="TEMP <= 19.9\nsquared_error = 0.2\nsamples = 4\nvalue = 40.8"] ;
144 -> 145 ;
146 [label="squared_error = 0.0\nsamples = 3\nvalue = 41.0"] ;
145 -> 146 ;
147 [label="squared_error = 0.0\nsamples = 1\nvalue = 40.0"] ;
145 -> 147 ;
148 [label="Nox <= 25.5\nsquared_error = 0.2\nsamples = 2\nvalue = 42.3"] ;
144 -> 148 ;
149 [label="squared_error = 0.0\nsamples = 1\nvalue = 42.0"] ;
148 -> 149 ;
150 [label="squared_error = 0.0\nsamples = 1\nvalue = 43.0"] ;
148 -> 150 ;
151 [label="WindSpeed <= 1.9\nsquared_error = 8.2\nsamples = 4\nvalue = 35.4"] ;
135 -> 151 ;
152 [label="Nox <= 34.5\nsquared_error = 0.2\nsamples = 2\nvalue = 32.3"] ;
151 -> 152 ;
153 [label="squared_error = 0.0\nsamples = 1\nvalue = 33.0"] ;
152 -> 153 ;
154 [label="squared_error = 0.0\nsamples = 1\nvalue = 32.0"] ;
152 -> 154 ;
155 [label="NO <= 9.7\nsquared_error = 1.7\nsamples = 2\nvalue = 37.8"] ;
151 -> 155 ;
156 [label="squared_error = 0.0\nsamples = 1\nvalue = 37.0"] ;
155 -> 156 ;
157 [label="squared_error = 0.0\nsamples = 1\nvalue = 40.0"] ;
155 -> 157 ;
158 [label="Humidity <= 75.4\nsquared_error = 9.6\nsamples = 8\nvalue = 44.3"] ;
120 -> 158 ;
159 [label="THC <= 2.2\nsquared_error = 6.0\nsamples = 7\nvalue = 45.2"] ;
158 -> 159 ;
160 [label="CO <= 0.6\nsquared_error = 1.1\nsamples = 3\nvalue = 43.3"] ;
159 -> 160 ;
161 [label="SO2 <= 5.1\nsquared_error = 0.2\nsamples = 2\nvalue = 43.7"] ;
160 -> 161 ;
162 [label="squared_error = 0.0\nsamples = 1\nvalue = 43.0"] ;
161 -> 162 ;
163 [label="squared_error = 0.0\nsamples = 1\nvalue = 44.0"] ;
161 -> 163 ;
164 [label="squared_error = 0.0\nsamples = 1\nvalue = 41.0"] ;
160 -> 164 ;
165 [label="Humidity <= 74.0\nsquared_error = 2.9\nsamples = 4\nvalue = 47.3"] ;
159 -> 165 ;
166 [label="THC <= 2.3\nsquared_error = 2.2\nsamples = 3\nvalue = 46.5"] ;
165 -> 166 ;
167 [label="squared_error = 0.0\nsamples = 1\nvalue = 48.0"] ;
166 -> 167 ;
168 [label="squared_error = 0.0\nsamples = 2\nvalue = 45.0"] ;
166 -> 168 ;
169 [label="squared_error = 0.0\nsamples = 1\nvalue = 49.0"] ;
165 -> 169 ;
170 [label="squared_error = 0.0\nsamples = 1\nvalue = 39.0"] ;
158 -> 170 ;
171 [label="TEMP <= 25.7\nsquared_error = 15.1\nsamples = 40\nvalue = 38.7"] ;
89 -> 171 ;
172 [label="CH4 <= 2.1\nsquared_error = 10.8\nsamples = 36\nvalue = 39.4"] ;
171 -> 172 ;
173 [label="O3 <= 26.4\nsquared_error = 9.1\nsamples = 33\nvalue = 38.8"] ;
172 -> 173 ;
174 [label="WindSpeed <= 1.4\nsquared_error = 3.2\nsamples = 7\nvalue = 36.5"] ;
173 -> 174 ;
175 [label="WindSpeed <= 1.0\nsquared_error = 0.2\nsamples = 2\nvalue = 38.5"] ;
174 -> 175 ;
176 [label="squared_error = 0.0\nsamples = 1\nvalue = 39.0"] ;
175 -> 176 ;
177 [label="squared_error = 0.0\nsamples = 1\nvalue = 38.0"] ;
175 -> 177 ;
178 [label="WindSpeed <= 1.9\nsquared_error = 1.8\nsamples = 5\nvalue = 35.5"] ;
174 -> 178 ;
179 [label="TEMP <= 23.5\nsquared_error = 0.8\nsamples = 3\nvalue = 34.5"] ;
178 -> 179 ;
180 [label="squared_error = 0.0\nsamples = 2\nvalue = 34.0"] ;
179 -> 180 ;
181 [label="squared_error = 0.0\nsamples = 1\nvalue = 36.0"] ;
179 -> 181 ;
182 [label="NMHC <= 0.3\nsquared_error = 0.8\nsamples = 2\nvalue = 36.5"] ;
178 -> 182 ;
183 [label="squared_error = 0.0\nsamples = 1\nvalue = 36.0"] ;
182 -> 183 ;
184 [label="squared_error = 0.0\nsamples = 1\nvalue = 38.0"] ;
182 -> 184 ;
185 [label="NO2 <= 22.3\nsquared_error = 8.7\nsamples = 26\nvalue = 39.6"] ;
173 -> 185 ;
186 [label="NO2 <= 20.1\nsquared_error = 5.1\nsamples = 11\nvalue = 37.6"] ;
185 -> 186 ;
187 [label="Humidity <= 73.3\nsquared_error = 3.9\nsamples = 4\nvalue = 39.7"] ;
186 -> 187 ;
188 [label="CH4 <= 1.0\nsquared_error = 0.5\nsamples = 3\nvalue = 41.0"] ;
187 -> 188 ;
189 [label="TEMP <= 22.5\nsquared_error = 0.2\nsamples = 2\nvalue = 41.3"] ;
188 -> 189 ;
190 [label="squared_error = 0.0\nsamples = 1\nvalue = 41.0"] ;
189 -> 190 ;
191 [label="squared_error = 0.0\nsamples = 1\nvalue = 42.0"] ;
189 -> 191 ;
192 [label="squared_error = 0.0\nsamples = 1\nvalue = 40.0"] ;
188 -> 192 ;
193 [label="squared_error = 0.0\nsamples = 1\nvalue = 37.0"] ;
187 -> 193 ;
194 [label="SO2 <= 2.5\nsquared_error = 2.1\nsamples = 7\nvalue = 36.5"] ;
186 -> 194 ;
195 [label="squared_error = 0.0\nsamples = 1\nvalue = 33.0"] ;
194 -> 195 ;
196 [label="TEMP <= 22.3\nsquared_error = 1.0\nsamples = 6\nvalue = 36.8"] ;
194 -> 196 ;
197 [label="squared_error = 0.0\nsamples = 1\nvalue = 39.0"] ;
196 -> 197 ;
198 [label="NMHC <= 0.1\nsquared_error = 0.5\nsamples = 5\nvalue = 36.6"] ;
196 -> 198 ;
199 [label="TEMP <= 22.7\nsquared_error = 0.2\nsamples = 4\nvalue = 36.8"] ;
198 -> 199 ;
200 [label="squared_error = 0.0\nsamples = 1\nvalue = 36.0"] ;
199 -> 200 ;
201 [label="squared_error = 0.0\nsamples = 3\nvalue = 37.0"] ;
199 -> 201 ;
202 [label="squared_error = 0.0\nsamples = 1\nvalue = 35.0"] ;
198 -> 202 ;
203 [label="TEMP <= 22.5\nsquared_error = 6.0\nsamples = 15\nvalue = 41.1"] ;
185 -> 203 ;
204 [label="Nox <= 34.0\nsquared_error = 1.7\nsamples = 3\nvalue = 44.2"] ;
203 -> 204 ;
205 [label="THC <= 1.1\nsquared_error = 0.2\nsamples = 2\nvalue = 45.5"] ;
204 -> 205 ;
206 [label="squared_error = 0.0\nsamples = 1\nvalue = 45.0"] ;
205 -> 206 ;
207 [label="squared_error = 0.0\nsamples = 1\nvalue = 46.0"] ;
205 -> 207 ;
208 [label="squared_error = 0.0\nsamples = 1\nvalue = 43.0"] ;
204 -> 208 ;
209 [label="WindSpeed <= 1.4\nsquared_error = 4.2\nsamples = 12\nvalue = 40.4"] ;
203 -> 209 ;
210 [label="Humidity <= 67.6\nsquared_error = 1.4\nsamples = 4\nvalue = 38.2"] ;
209 -> 210 ;
211 [label="squared_error = 0.0\nsamples = 1\nvalue = 36.0"] ;
210 -> 211 ;
212 [label="WindSpeed <= 1.1\nsquared_error = 0.2\nsamples = 3\nvalue = 38.8"] ;
210 -> 212 ;
213 [label="squared_error = 0.0\nsamples = 2\nvalue = 39.0"] ;
212 -> 213 ;
214 [label="squared_error = 0.0\nsamples = 1\nvalue = 38.0"] ;
212 -> 214 ;
215 [label="NMHC <= 0.3\nsquared_error = 2.6\nsamples = 8\nvalue = 41.3"] ;
209 -> 215 ;
216 [label="CH4 <= 2.0\nsquared_error = 1.1\nsamples = 6\nvalue = 41.9"] ;
215 -> 216 ;
217 [label="WindSpeed <= 1.6\nsquared_error = 0.2\nsamples = 4\nvalue = 41.3"] ;
216 -> 217 ;
218 [label="squared_error = 0.0\nsamples = 1\nvalue = 42.0"] ;
217 -> 218 ;
219 [label="squared_error = 0.0\nsamples = 3\nvalue = 41.0"] ;
217 -> 219 ;
220 [label="NMHC <= 0.2\nsquared_error = 0.2\nsamples = 2\nvalue = 43.3"] ;
216 -> 220 ;
221 [label="squared_error = 0.0\nsamples = 1\nvalue = 43.0"] ;
220 -> 221 ;
222 [label="squared_error = 0.0\nsamples = 1\nvalue = 44.0"] ;
220 -> 222 ;
223 [label="CO <= 0.7\nsquared_error = 0.2\nsamples = 2\nvalue = 38.5"] ;
215 -> 223 ;
224 [label="squared_error = 0.0\nsamples = 1\nvalue = 38.0"] ;
223 -> 224 ;
225 [label="squared_error = 0.0\nsamples = 1\nvalue = 39.0"] ;
223 -> 225 ;
226 [label="Humidity <= 75.1\nsquared_error = 1.0\nsamples = 3\nvalue = 44.0"] ;
172 -> 226 ;
227 [label="THC <= 2.4\nsquared_error = 0.2\nsamples = 2\nvalue = 44.4"] ;
226 -> 227 ;
228 [label="squared_error = 0.0\nsamples = 1\nvalue = 45.0"] ;
227 -> 228 ;
229 [label="squared_error = 0.0\nsamples = 1\nvalue = 44.0"] ;
227 -> 229 ;
230 [label="squared_error = 0.0\nsamples = 1\nvalue = 42.0"] ;
226 -> 230 ;
231 [label="TEMP <= 25.9\nsquared_error = 15.3\nsamples = 4\nvalue = 33.1"] ;
171 -> 231 ;
232 [label="THC <= 2.2\nsquared_error = 1.6\nsamples = 3\nvalue = 34.7"] ;
231 -> 232 ;
233 [label="squared_error = 0.0\nsamples = 1\nvalue = 32.0"] ;
232 -> 233 ;
234 [label="CH4 <= 2.0\nsquared_error = 0.2\nsamples = 2\nvalue = 35.2"] ;
232 -> 234 ;
235 [label="squared_error = 0.0\nsamples = 1\nvalue = 36.0"] ;
234 -> 235 ;
236 [label="squared_error = 0.0\nsamples = 1\nvalue = 35.0"] ;
234 -> 236 ;
237 [label="squared_error = 0.0\nsamples = 1\nvalue = 24.0"] ;
231 -> 237 ;
238 [label="TEMP <= 28.3\nsquared_error = 61.3\nsamples = 186\nvalue = 18.6"] ;
0 -> 238 [labeldistance=2.5, labelangle=-45, headlabel="False"] ;
239 [label="CO <= 0.3\nsquared_error = 44.8\nsamples = 79\nvalue = 24.5"] ;
238 -> 239 ;
240 [label="O3 <= 29.1\nsquared_error = 24.8\nsamples = 15\nvalue = 16.3"] ;
239 -> 240 ;
241 [label="Humidity <= 84.6\nsquared_error = 13.4\nsamples = 6\nvalue = 10.4"] ;
240 -> 241 ;
242 [label="THC <= 1.0\nsquared_error = 2.6\nsamples = 4\nvalue = 12.4"] ;
241 -> 242 ;
243 [label="NO <= 2.0\nsquared_error = 1.0\nsamples = 2\nvalue = 14.0"] ;
242 -> 243 ;
244 [label="squared_error = 0.0\nsamples = 1\nvalue = 13.0"] ;
243 -> 244 ;
245 [label="squared_error = 0.0\nsamples = 1\nvalue = 15.0"] ;
243 -> 245 ;
246 [label="THC <= 2.0\nsquared_error = 0.9\nsamples = 2\nvalue = 11.3"] ;
242 -> 246 ;
247 [label="squared_error = 0.0\nsamples = 1\nvalue = 10.0"] ;
246 -> 247 ;
248 [label="squared_error = 0.0\nsamples = 1\nvalue = 12.0"] ;
246 -> 248 ;
249 [label="WindSpeed <= 1.5\nsquared_error = 6.2\nsamples = 2\nvalue = 5.5"] ;
241 -> 249 ;
250 [label="squared_error = 0.0\nsamples = 1\nvalue = 3.0"] ;
249 -> 250 ;
251 [label="squared_error = 0.0\nsamples = 1\nvalue = 8.0"] ;
249 -> 251 ;
252 [label="THC <= 2.0\nsquared_error = 4.3\nsamples = 9\nvalue = 19.3"] ;
240 -> 252 ;
253 [label="WindSpeed <= 1.2\nsquared_error = 2.4\nsamples = 7\nvalue = 18.5"] ;
252 -> 253 ;
254 [label="squared_error = 0.0\nsamples = 1\nvalue = 23.0"] ;
253 -> 254 ;
255 [label="O3 <= 36.4\nsquared_error = 0.5\nsamples = 6\nvalue = 18.1"] ;
253 -> 255 ;
256 [label="Nox <= 7.5\nsquared_error = 0.1\nsamples = 5\nvalue = 17.9"] ;
255 -> 256 ;
257 [label="squared_error = 0.0\nsamples = 1\nvalue = 17.0"] ;
256 -> 257 ;
258 [label="squared_error = 0.0\nsamples = 4\nvalue = 18.0"] ;
256 -> 258 ;
259 [label="squared_error = 0.0\nsamples = 1\nvalue = 20.0"] ;
255 -> 259 ;
260 [label="TEMP <= 26.5\nsquared_error = 2.0\nsamples = 2\nvalue = 22.0"] ;
252 -> 260 ;
261 [label="squared_error = 0.0\nsamples = 1\nvalue = 21.0"] ;
260 -> 261 ;
262 [label="squared_error = 0.0\nsamples = 1\nvalue = 24.0"] ;
260 -> 262 ;
263 [label="O3 <= 26.9\nsquared_error = 32.4\nsamples = 64\nvalue = 26.2"] ;
239 -> 263 ;
264 [label="Humidity <= 81.2\nsquared_error = 10.5\nsamples = 14\nvalue = 20.7"] ;
263 -> 264 ;
265 [label="CH4 <= 1.9\nsquared_error = 4.5\nsamples = 13\nvalue = 21.2"] ;
264 -> 265 ;
266 [label="TEMP <= 27.6\nsquared_error = 2.3\nsamples = 10\nvalue = 20.2"] ;
265 -> 266 ;
267 [label="WindSpeed <= 1.2\nsquared_error = 0.3\nsamples = 6\nvalue = 21.0"] ;
266 -> 267 ;
268 [label="squared_error = 0.0\nsamples = 1\nvalue = 22.0"] ;
267 -> 268 ;
269 [label="Humidity <= 74.4\nsquared_error = 0.1\nsamples = 5\nvalue = 20.8"] ;
267 -> 269 ;
270 [label="squared_error = 0.0\nsamples = 2\nvalue = 21.0"] ;
269 -> 270 ;
271 [label="NO <= 5.5\nsquared_error = 0.2\nsamples = 3\nvalue = 20.6"] ;
269 -> 271 ;
272 [label="squared_error = 0.0\nsamples = 1\nvalue = 20.0"] ;
271 -> 272 ;
273 [label="squared_error = 0.0\nsamples = 2\nvalue = 21.0"] ;
271 -> 273 ;
274 [label="NO <= 5.2\nsquared_error = 2.2\nsamples = 4\nvalue = 18.5"] ;
266 -> 274 ;
275 [label="NO2 <= 16.5\nsquared_error = 0.2\nsamples = 2\nvalue = 20.5"] ;
274 -> 275 ;
276 [label="squared_error = 0.0\nsamples = 1\nvalue = 20.0"] ;
275 -> 276 ;
277 [label="squared_error = 0.0\nsamples = 1\nvalue = 21.0"] ;
275 -> 277 ;
278 [label="NO <= 6.7\nsquared_error = 0.2\nsamples = 2\nvalue = 17.5"] ;
274 -> 278 ;
279 [label="squared_error = 0.0\nsamples = 1\nvalue = 17.0"] ;
278 -> 279 ;
280 [label="squared_error = 0.0\nsamples = 1\nvalue = 18.0"] ;
278 -> 280 ;
281 [label="WindSpeed <= 1.2\nsquared_error = 0.7\nsamples = 3\nvalue = 23.9"] ;
265 -> 281 ;
282 [label="squared_error = 0.0\nsamples = 1\nvalue = 23.0"] ;
281 -> 282 ;
283 [label="CH4 <= 2.1\nsquared_error = 0.2\nsamples = 2\nvalue = 24.5"] ;
281 -> 283 ;
284 [label="squared_error = 0.0\nsamples = 1\nvalue = 25.0"] ;
283 -> 284 ;
285 [label="squared_error = 0.0\nsamples = 1\nvalue = 24.0"] ;
283 -> 285 ;
286 [label="squared_error = 0.0\nsamples = 1\nvalue = 8.0"] ;
264 -> 286 ;
287 [label="O3 <= 43.5\nsquared_error = 25.9\nsamples = 50\nvalue = 28.1"] ;
263 -> 287 ;
288 [label="NMHC <= 0.1\nsquared_error = 21.9\nsamples = 38\nvalue = 26.8"] ;
287 -> 288 ;
289 [label="Nox <= 23.5\nsquared_error = 16.4\nsamples = 19\nvalue = 23.7"] ;
288 -> 289 ;
290 [label="NO <= 2.5\nsquared_error = 10.6\nsamples = 18\nvalue = 23.2"] ;
289 -> 290 ;
291 [label="WindSpeed <= 1.2\nsquared_error = 7.5\nsamples = 13\nvalue = 24.6"] ;
290 -> 291 ;
292 [label="SO2 <= 2.0\nsquared_error = 10.9\nsamples = 3\nvalue = 27.7"] ;
291 -> 292 ;
293 [label="O3 <= 41.0\nsquared_error = 2.2\nsamples = 2\nvalue = 25.5"] ;
292 -> 293 ;
294 [label="squared_error = 0.0\nsamples = 1\nvalue = 27.0"] ;
293 -> 294 ;
295 [label="squared_error = 0.0\nsamples = 1\nvalue = 24.0"] ;
293 -> 295 ;
296 [label="squared_error = 0.0\nsamples = 1\nvalue = 32.0"] ;
292 -> 296 ;
297 [label="THC <= 2.1\nsquared_error = 4.0\nsamples = 10\nvalue = 23.8"] ;
291 -> 297 ;
298 [label="O3 <= 37.5\nsquared_error = 1.3\nsamples = 8\nvalue = 22.9"] ;
297 -> 298 ;
299 [label="O3 <= 33.1\nsquared_error = 0.5\nsamples = 5\nvalue = 23.4"] ;
298 -> 299 ;
300 [label="CH4 <= 1.0\nsquared_error = 0.2\nsamples = 2\nvalue = 22.7"] ;
299 -> 300 ;
301 [label="squared_error = 0.0\nsamples = 1\nvalue = 22.0"] ;
300 -> 301 ;
302 [label="squared_error = 0.0\nsamples = 1\nvalue = 23.0"] ;
300 -> 302 ;
303 [label="squared_error = 0.0\nsamples = 3\nvalue = 24.0"] ;
299 -> 303 ;
304 [label="WindSpeed <= 2.2\nsquared_error = 0.9\nsamples = 3\nvalue = 21.7"] ;
298 -> 304 ;
305 [label="squared_error = 0.0\nsamples = 2\nvalue = 21.0"] ;
304 -> 305 ;
306 [label="squared_error = 0.0\nsamples = 1\nvalue = 23.0"] ;
304 -> 306 ;
307 [label="squared_error = 0.0\nsamples = 2\nvalue = 27.0"] ;
297 -> 307 ;
308 [label="TEMP <= 26.2\nsquared_error = 5.8\nsamples = 5\nvalue = 20.5"] ;
290 -> 308 ;
309 [label="squared_error = 0.0\nsamples = 1\nvalue = 17.0"] ;
308 -> 309 ;
310 [label="O3 <= 29.4\nsquared_error = 2.2\nsamples = 4\nvalue = 21.7"] ;
308 -> 310 ;
311 [label="squared_error = 0.0\nsamples = 1\nvalue = 23.0"] ;
310 -> 311 ;
312 [label="TEMP <= 28.1\nsquared_error = 0.9\nsamples = 3\nvalue = 20.3"] ;
310 -> 312 ;
313 [label="squared_error = 0.0\nsamples = 2\nvalue = 21.0"] ;
312 -> 313 ;
314 [label="squared_error = 0.0\nsamples = 1\nvalue = 19.0"] ;
312 -> 314 ;
315 [label="squared_error = 0.0\nsamples = 1\nvalue = 36.0"] ;
289 -> 315 ;
316 [label="Nox <= 33.0\nsquared_error = 13.6\nsamples = 19\nvalue = 29.1"] ;
288 -> 316 ;
317 [label="NMHC <= 0.2\nsquared_error = 8.9\nsamples = 17\nvalue = 28.6"] ;
316 -> 317 ;
318 [label="Humidity <= 78.9\nsquared_error = 3.6\nsamples = 7\nvalue = 30.8"] ;
317 -> 318 ;
319 [label="NO2 <= 16.3\nsquared_error = 1.0\nsamples = 6\nvalue = 29.9"] ;
318 -> 319 ;
320 [label="squared_error = 0.0\nsamples = 3\nvalue = 29.0"] ;
319 -> 320 ;
321 [label="squared_error = 0.0\nsamples = 3\nvalue = 31.0"] ;
319 -> 321 ;
322 [label="squared_error = 0.0\nsamples = 1\nvalue = 34.0"] ;
318 -> 322 ;
323 [label="THC <= 2.2\nsquared_error = 6.3\nsamples = 10\nvalue = 26.8"] ;
317 -> 323 ;
324 [label="Humidity <= 74.3\nsquared_error = 0.7\nsamples = 4\nvalue = 24.8"] ;
323 -> 324 ;
325 [label="NMHC <= 0.2\nsquared_error = 0.2\nsamples = 2\nvalue = 25.5"] ;
324 -> 325 ;
326 [label="squared_error = 0.0\nsamples = 1\nvalue = 25.0"] ;
325 -> 326 ;
327 [label="squared_error = 0.0\nsamples = 1\nvalue = 26.0"] ;
325 -> 327 ;
328 [label="squared_error = 0.0\nsamples = 2\nvalue = 24.0"] ;
324 -> 328 ;
329 [label="NO <= 4.8\nsquared_error = 4.5\nsamples = 6\nvalue = 28.5"] ;
323 -> 329 ;
330 [label="WindSpeed <= 1.7\nsquared_error = 1.7\nsamples = 4\nvalue = 27.6"] ;
329 -> 330 ;
331 [label="O3 <= 33.8\nsquared_error = 0.2\nsamples = 3\nvalue = 28.6"] ;
330 -> 331 ;
332 [label="squared_error = 0.0\nsamples = 2\nvalue = 29.0"] ;
331 -> 332 ;
333 [label="squared_error = 0.0\nsamples = 1\nvalue = 28.0"] ;
331 -> 333 ;
334 [label="squared_error = 0.0\nsamples = 1\nvalue = 26.0"] ;
330 -> 334 ;
335 [label="squared_error = 0.0\nsamples = 2\nvalue = 32.0"] ;
329 -> 335 ;
336 [label="WindSpeed <= 1.7\nsquared_error = 4.0\nsamples = 2\nvalue = 38.0"] ;
316 -> 336 ;
337 [label="squared_error = 0.0\nsamples = 1\nvalue = 40.0"] ;
336 -> 337 ;
338 [label="squared_error = 0.0\nsamples = 1\nvalue = 36.0"] ;
336 -> 338 ;
339 [label="CH4 <= 1.0\nsquared_error = 14.5\nsamples = 12\nvalue = 32.5"] ;
287 -> 339 ;
340 [label="CO <= 0.4\nsquared_error = 5.0\nsamples = 5\nvalue = 37.0"] ;
339 -> 340 ;
341 [label="squared_error = 0.0\nsamples = 1\nvalue = 34.0"] ;
340 -> 341 ;
342 [label="Nox <= 24.5\nsquared_error = 0.8\nsamples = 4\nvalue = 38.5"] ;
340 -> 342 ;
343 [label="squared_error = 0.0\nsamples = 3\nvalue = 38.0"] ;
342 -> 343 ;
344 [label="squared_error = 0.0\nsamples = 1\nvalue = 40.0"] ;
342 -> 344 ;
345 [label="Humidity <= 77.9\nsquared_error = 2.8\nsamples = 7\nvalue = 30.1"] ;
339 -> 345 ;
346 [label="SO2 <= 4.0\nsquared_error = 0.4\nsamples = 6\nvalue = 29.6"] ;
345 -> 346 ;
347 [label="squared_error = 0.0\nsamples = 3\nvalue = 30.0"] ;
346 -> 347 ;
348 [label="NMHC <= 0.2\nsquared_error = 0.2\nsamples = 3\nvalue = 28.7"] ;
346 -> 348 ;
349 [label="squared_error = 0.0\nsamples = 2\nvalue = 29.0"] ;
348 -> 349 ;
350 [label="squared_error = 0.0\nsamples = 1\nvalue = 28.0"] ;
348 -> 350 ;
351 [label="squared_error = 0.0\nsamples = 1\nvalue = 35.0"] ;
345 -> 351 ;
352 [label="O3 <= 25.6\nsquared_error = 26.0\nsamples = 107\nvalue = 14.0"] ;
238 -> 352 ;
353 [label="THC <= 2.0\nsquared_error = 10.7\nsamples = 57\nvalue = 11.0"] ;
352 -> 353 ;
354 [label="O3 <= 18.2\nsquared_error = 8.9\nsamples = 51\nvalue = 10.5"] ;
353 -> 354 ;
355 [label="CO <= 0.3\nsquared_error = 5.4\nsamples = 12\nvalue = 8.2"] ;
354 -> 355 ;
356 [label="NO <= 3.1\nsquared_error = 0.8\nsamples = 6\nvalue = 6.5"] ;
355 -> 356 ;
357 [label="squared_error = 0.0\nsamples = 1\nvalue = 9.0"] ;
356 -> 357 ;
358 [label="TEMP <= 29.8\nsquared_error = 0.2\nsamples = 5\nvalue = 6.2"] ;
356 -> 358 ;
359 [label="squared_error = 0.0\nsamples = 1\nvalue = 7.0"] ;
358 -> 359 ;
360 [label="squared_error = 0.0\nsamples = 4\nvalue = 6.0"] ;
358 -> 360 ;
361 [label="NO <= 3.4\nsquared_error = 2.7\nsamples = 6\nvalue = 10.3"] ;
355 -> 361 ;
362 [label="squared_error = 0.0\nsamples = 1\nvalue = 14.0"] ;
361 -> 362 ;
363 [label="CH4 <= 1.7\nsquared_error = 1.1\nsamples = 5\nvalue = 9.9"] ;
361 -> 363 ;
364 [label="NMHC <= 0.1\nsquared_error = 0.2\nsamples = 2\nvalue = 10.6"] ;
363 -> 364 ;
365 [label="squared_error = 0.0\nsamples = 1\nvalue = 10.0"] ;
364 -> 365 ;
366 [label="squared_error = 0.0\nsamples = 1\nvalue = 11.0"] ;
364 -> 366 ;
367 [label="NO <= 4.9\nsquared_error = 0.2\nsamples = 3\nvalue = 8.7"] ;
363 -> 367 ;
368 [label="squared_error = 0.0\nsamples = 2\nvalue = 9.0"] ;
367 -> 368 ;
369 [label="squared_error = 0.0\nsamples = 1\nvalue = 8.0"] ;
367 -> 369 ;
370 [label="Humidity <= 78.5\nsquared_error = 7.6\nsamples = 39\nvalue = 11.3"] ;
354 -> 370 ;
371 [label="TEMP <= 30.7\nsquared_error = 5.6\nsamples = 27\nvalue = 12.3"] ;
370 -> 371 ;
372 [label="NO2 <= 4.8\nsquared_error = 4.5\nsamples = 25\nvalue = 11.9"] ;
371 -> 372 ;
373 [label="THC <= 1.0\nsquared_error = 0.2\nsamples = 3\nvalue = 8.3"] ;
372 -> 373 ;
374 [label="squared_error = 0.0\nsamples = 2\nvalue = 8.0"] ;
373 -> 374 ;
375 [label="squared_error = 0.0\nsamples = 1\nvalue = 9.0"] ;
373 -> 375 ;
376 [label="CH4 <= 1.8\nsquared_error = 3.7\nsamples = 22\nvalue = 12.3"] ;
372 -> 376 ;
377 [label="WindSpeed <= 2.6\nsquared_error = 3.4\nsamples = 10\nvalue = 13.5"] ;
376 -> 377 ;
378 [label="TEMP <= 29.9\nsquared_error = 2.4\nsamples = 9\nvalue = 12.9"] ;
377 -> 378 ;
379 [label="Humidity <= 77.4\nsquared_error = 1.0\nsamples = 8\nvalue = 12.5"] ;
378 -> 379 ;
380 [label="TEMP <= 29.7\nsquared_error = 0.4\nsamples = 5\nvalue = 13.1"] ;
379 -> 380 ;
381 [label="Nox <= 13.5\nsquared_error = 0.2\nsamples = 4\nvalue = 12.8"] ;
380 -> 381 ;
382 [label="squared_error = 0.0\nsamples = 1\nvalue = 12.0"] ;
381 -> 382 ;
383 [label="squared_error = 0.0\nsamples = 3\nvalue = 13.0"] ;
381 -> 383 ;
384 [label="squared_error = 0.0\nsamples = 1\nvalue = 14.0"] ;
380 -> 384 ;
385 [label="SO2 <= 4.8\nsquared_error = 0.2\nsamples = 3\nvalue = 11.5"] ;
379 -> 385 ;
386 [label="squared_error = 0.0\nsamples = 2\nvalue = 11.0"] ;
385 -> 386 ;
387 [label="squared_error = 0.0\nsamples = 1\nvalue = 12.0"] ;
385 -> 387 ;
388 [label="squared_error = 0.0\nsamples = 1\nvalue = 17.0"] ;
378 -> 388 ;
389 [label="squared_error = 0.0\nsamples = 1\nvalue = 16.0"] ;
377 -> 389 ;
390 [label="TEMP <= 29.4\nsquared_error = 1.6\nsamples = 12\nvalue = 11.3"] ;
376 -> 390 ;
391 [label="WindSpeed <= 2.0\nsquared_error = 1.4\nsamples = 4\nvalue = 9.6"] ;
390 -> 391 ;
392 [label="CH4 <= 1.8\nsquared_error = 0.2\nsamples = 2\nvalue = 8.7"] ;
391 -> 392 ;
393 [label="squared_error = 0.0\nsamples = 1\nvalue = 9.0"] ;
392 -> 393 ;
394 [label="squared_error = 0.0\nsamples = 1\nvalue = 8.0"] ;
392 -> 394 ;
395 [label="squared_error = 0.0\nsamples = 2\nvalue = 11.0"] ;
391 -> 395 ;
396 [label="Humidity <= 69.1\nsquared_error = 0.3\nsamples = 8\nvalue = 11.9"] ;
390 -> 396 ;
397 [label="squared_error = 0.0\nsamples = 1\nvalue = 11.0"] ;
396 -> 397 ;
398 [label="CO <= 0.1\nsquared_error = 0.2\nsamples = 7\nvalue = 12.0"] ;
396 -> 398 ;
399 [label="squared_error = 0.0\nsamples = 1\nvalue = 13.0"] ;
398 -> 399 ;
400 [label="O3 <= 25.4\nsquared_error = 0.1\nsamples = 6\nvalue = 11.9"] ;
398 -> 400 ;
401 [label="squared_error = 0.0\nsamples = 5\nvalue = 12.0"] ;
400 -> 401 ;
402 [label="squared_error = 0.0\nsamples = 1\nvalue = 11.0"] ;
400 -> 402 ;
403 [label="CO <= 0.2\nsquared_error = 0.9\nsamples = 2\nvalue = 16.3"] ;
371 -> 403 ;
404 [label="squared_error = 0.0\nsamples = 1\nvalue = 15.0"] ;
403 -> 404 ;
405 [label="squared_error = 0.0\nsamples = 1\nvalue = 17.0"] ;
403 -> 405 ;
406 [label="SO2 <= 2.8\nsquared_error = 5.4\nsamples = 12\nvalue = 9.1"] ;
370 -> 406 ;
407 [label="SO2 <= 1.9\nsquared_error = 0.8\nsamples = 3\nvalue = 6.5"] ;
406 -> 407 ;
408 [label="squared_error = 0.0\nsamples = 1\nvalue = 5.0"] ;
407 -> 408 ;
409 [label="squared_error = 0.0\nsamples = 2\nvalue = 7.0"] ;
407 -> 409 ;
410 [label="WindSpeed <= 2.4\nsquared_error = 4.1\nsamples = 9\nvalue = 9.9"] ;
406 -> 410 ;
411 [label="NO2 <= 14.7\nsquared_error = 1.2\nsamples = 8\nvalue = 10.4"] ;
410 -> 411 ;
412 [label="WindSpeed <= 2.1\nsquared_error = 0.7\nsamples = 7\nvalue = 10.2"] ;
411 -> 412 ;
413 [label="NMHC <= 0.1\nsquared_error = 0.2\nsamples = 4\nvalue = 9.8"] ;
412 -> 413 ;
414 [label="squared_error = 0.0\nsamples = 3\nvalue = 10.0"] ;
413 -> 414 ;
415 [label="squared_error = 0.0\nsamples = 1\nvalue = 9.0"] ;
413 -> 415 ;
416 [label="SO2 <= 3.3\nsquared_error = 0.2\nsamples = 3\nvalue = 11.3"] ;
412 -> 416 ;
417 [label="squared_error = 0.0\nsamples = 1\nvalue = 12.0"] ;
416 -> 417 ;
418 [label="squared_error = 0.0\nsamples = 2\nvalue = 11.0"] ;
416 -> 418 ;
419 [label="squared_error = 0.0\nsamples = 1\nvalue = 13.0"] ;
411 -> 419 ;
420 [label="squared_error = 0.0\nsamples = 1\nvalue = 4.0"] ;
410 -> 420 ;
421 [label="CH4 <= 1.9\nsquared_error = 7.7\nsamples = 6\nvalue = 15.2"] ;
353 -> 421 ;
422 [label="NO <= 3.3\nsquared_error = 2.6\nsamples = 4\nvalue = 13.4"] ;
421 -> 422 ;
423 [label="THC <= 2.0\nsquared_error = 0.2\nsamples = 2\nvalue = 14.7"] ;
422 -> 423 ;
424 [label="squared_error = 0.0\nsamples = 1\nvalue = 15.0"] ;
423 -> 424 ;
425 [label="squared_error = 0.0\nsamples = 1\nvalue = 14.0"] ;
423 -> 425 ;
426 [label="NMHC <= 0.3\nsquared_error = 0.2\nsamples = 2\nvalue = 11.5"] ;
422 -> 426 ;
427 [label="squared_error = 0.0\nsamples = 1\nvalue = 11.0"] ;
426 -> 427 ;
428 [label="squared_error = 0.0\nsamples = 1\nvalue = 12.0"] ;
426 -> 428 ;
429 [label="CO <= 0.5\nsquared_error = 0.9\nsamples = 2\nvalue = 18.3"] ;
421 -> 429 ;
430 [label="squared_error = 0.0\nsamples = 1\nvalue = 17.0"] ;
429 -> 430 ;
431 [label="squared_error = 0.0\nsamples = 1\nvalue = 19.0"] ;
429 -> 431 ;
432 [label="NMHC <= 0.2\nsquared_error = 21.1\nsamples = 50\nvalue = 17.4"] ;
352 -> 432 ;
433 [label="O3 <= 30.2\nsquared_error = 15.2\nsamples = 46\nvalue = 16.7"] ;
432 -> 433 ;
434 [label="NO2 <= 16.3\nsquared_error = 13.8\nsamples = 23\nvalue = 14.6"] ;
433 -> 434 ;
435 [label="Humidity <= 72.9\nsquared_error = 9.4\nsamples = 22\nvalue = 13.9"] ;
434 -> 435 ;
436 [label="O3 <= 29.0\nsquared_error = 0.2\nsamples = 2\nvalue = 19.3"] ;
435 -> 436 ;
437 [label="squared_error = 0.0\nsamples = 1\nvalue = 19.0"] ;
436 -> 437 ;
438 [label="squared_error = 0.0\nsamples = 1\nvalue = 20.0"] ;
436 -> 438 ;
439 [label="SO2 <= 3.2\nsquared_error = 6.9\nsamples = 20\nvalue = 13.4"] ;
435 -> 439 ;
440 [label="THC <= 1.0\nsquared_error = 1.9\nsamples = 6\nvalue = 11.2"] ;
439 -> 440 ;
441 [label="CO <= 0.2\nsquared_error = 0.2\nsamples = 4\nvalue = 10.5"] ;
440 -> 441 ;
442 [label="squared_error = 0.0\nsamples = 2\nvalue = 11.0"] ;
441 -> 442 ;
443 [label="squared_error = 0.0\nsamples = 2\nvalue = 10.0"] ;
441 -> 443 ;
444 [label="O3 <= 28.0\nsquared_error = 0.2\nsamples = 2\nvalue = 13.5"] ;
440 -> 444 ;
445 [label="squared_error = 0.0\nsamples = 1\nvalue = 13.0"] ;
444 -> 445 ;
446 [label="squared_error = 0.0\nsamples = 1\nvalue = 14.0"] ;
444 -> 446 ;
447 [label="O3 <= 26.4\nsquared_error = 6.5\nsamples = 14\nvalue = 14.2"] ;
439 -> 447 ;
448 [label="CO <= 0.3\nsquared_error = 6.0\nsamples = 3\nvalue = 11.0"] ;
447 -> 448 ;
449 [label="squared_error = 0.0\nsamples = 1\nvalue = 14.0"] ;
448 -> 449 ;
450 [label="TEMP <= 29.4\nsquared_error = 2.2\nsamples = 2\nvalue = 9.5"] ;
448 -> 450 ;
451 [label="squared_error = 0.0\nsamples = 1\nvalue = 8.0"] ;
450 -> 451 ;
452 [label="squared_error = 0.0\nsamples = 1\nvalue = 11.0"] ;
450 -> 452 ;
453 [label="TEMP <= 28.8\nsquared_error = 4.4\nsamples = 11\nvalue = 14.8"] ;
447 -> 453 ;
454 [label="NO <= 2.2\nsquared_error = 0.2\nsamples = 2\nvalue = 12.3"] ;
453 -> 454 ;
455 [label="squared_error = 0.0\nsamples = 1\nvalue = 13.0"] ;
454 -> 455 ;
456 [label="squared_error = 0.0\nsamples = 1\nvalue = 12.0"] ;
454 -> 456 ;
457 [label="WindSpeed <= 1.8\nsquared_error = 3.8\nsamples = 9\nvalue = 15.3"] ;
453 -> 457 ;
458 [label="O3 <= 28.4\nsquared_error = 4.0\nsamples = 2\nvalue = 19.0"] ;
457 -> 458 ;
459 [label="squared_error = 0.0\nsamples = 1\nvalue = 21.0"] ;
458 -> 459 ;
460 [label="squared_error = 0.0\nsamples = 1\nvalue = 17.0"] ;
458 -> 460 ;
461 [label="Humidity <= 78.9\nsquared_error = 1.1\nsamples = 7\nvalue = 14.7"] ;
457 -> 461 ;
462 [label="NO2 <= 9.2\nsquared_error = 0.4\nsamples = 6\nvalue = 14.9"] ;
461 -> 462 ;
463 [label="NO2 <= 7.0\nsquared_error = 1.0\nsamples = 2\nvalue = 14.0"] ;
462 -> 463 ;
464 [label="squared_error = 0.0\nsamples = 1\nvalue = 15.0"] ;
463 -> 464 ;
465 [label="squared_error = 0.0\nsamples = 1\nvalue = 13.0"] ;
463 -> 465 ;
466 [label="O3 <= 28.6\nsquared_error = 0.1\nsamples = 4\nvalue = 15.1"] ;
462 -> 466 ;
467 [label="squared_error = 0.0\nsamples = 3\nvalue = 15.0"] ;
466 -> 467 ;
468 [label="squared_error = 0.0\nsamples = 1\nvalue = 16.0"] ;
466 -> 468 ;
469 [label="squared_error = 0.0\nsamples = 1\nvalue = 12.0"] ;
461 -> 469 ;
470 [label="squared_error = 0.0\nsamples = 1\nvalue = 22.0"] ;
434 -> 470 ;
471 [label="SO2 <= 2.6\nsquared_error = 8.9\nsamples = 23\nvalue = 18.6"] ;
433 -> 471 ;
472 [label="NO2 <= 8.0\nsquared_error = 2.2\nsamples = 2\nvalue = 23.8"] ;
471 -> 472 ;
473 [label="squared_error = 0.0\nsamples = 1\nvalue = 25.0"] ;
472 -> 473 ;
474 [label="squared_error = 0.0\nsamples = 1\nvalue = 22.0"] ;
472 -> 474 ;
475 [label="TEMP <= 29.7\nsquared_error = 4.8\nsamples = 21\nvalue = 17.7"] ;
471 -> 475 ;
476 [label="SO2 <= 3.8\nsquared_error = 3.3\nsamples = 17\nvalue = 17.2"] ;
475 -> 476 ;
477 [label="WindSpeed <= 2.5\nsquared_error = 1.0\nsamples = 10\nvalue = 16.2"] ;
476 -> 477 ;
478 [label="THC <= 2.0\nsquared_error = 0.7\nsamples = 9\nvalue = 16.4"] ;
477 -> 478 ;
479 [label="TEMP <= 28.6\nsquared_error = 1.0\nsamples = 2\nvalue = 18.0"] ;
478 -> 479 ;
480 [label="squared_error = 0.0\nsamples = 1\nvalue = 17.0"] ;
479 -> 480 ;
481 [label="squared_error = 0.0\nsamples = 1\nvalue = 19.0"] ;
479 -> 481 ;
482 [label="SO2 <= 2.9\nsquared_error = 0.1\nsamples = 7\nvalue = 16.1"] ;
478 -> 482 ;
483 [label="squared_error = 0.0\nsamples = 1\nvalue = 17.0"] ;
482 -> 483 ;
484 [label="squared_error = 0.0\nsamples = 6\nvalue = 16.0"] ;
482 -> 484 ;
485 [label="squared_error = 0.0\nsamples = 1\nvalue = 14.0"] ;
477 -> 485 ;
486 [label="NO <= 3.2\nsquared_error = 3.2\nsamples = 7\nvalue = 18.4"] ;
476 -> 486 ;
487 [label="WindSpeed <= 1.8\nsquared_error = 1.6\nsamples = 6\nvalue = 18.8"] ;
486 -> 487 ;
488 [label="squared_error = 0.0\nsamples = 1\nvalue = 22.0"] ;
487 -> 488 ;
489 [label="WindSpeed <= 2.3\nsquared_error = 0.6\nsamples = 5\nvalue = 18.5"] ;
487 -> 489 ;
490 [label="squared_error = 0.0\nsamples = 3\nvalue = 18.0"] ;
489 -> 490 ;
491 [label="Nox <= 15.0\nsquared_error = 0.2\nsamples = 2\nvalue = 19.7"] ;
489 -> 491 ;
492 [label="squared_error = 0.0\nsamples = 1\nvalue = 20.0"] ;
491 -> 492 ;
493 [label="squared_error = 0.0\nsamples = 1\nvalue = 19.0"] ;
491 -> 493 ;
494 [label="squared_error = 0.0\nsamples = 1\nvalue = 14.0"] ;
486 -> 494 ;
495 [label="NO <= 2.1\nsquared_error = 2.5\nsamples = 4\nvalue = 21.0"] ;
475 -> 495 ;
496 [label="Humidity <= 73.2\nsquared_error = 0.2\nsamples = 2\nvalue = 19.5"] ;
495 -> 496 ;
497 [label="squared_error = 0.0\nsamples = 1\nvalue = 20.0"] ;
496 -> 497 ;
498 [label="squared_error = 0.0\nsamples = 1\nvalue = 19.0"] ;
496 -> 498 ;
499 [label="TEMP <= 30.0\nsquared_error = 0.2\nsamples = 2\nvalue = 22.5"] ;
495 -> 499 ;
500 [label="squared_error = 0.0\nsamples = 1\nvalue = 22.0"] ;
499 -> 500 ;
501 [label="squared_error = 0.0\nsamples = 1\nvalue = 23.0"] ;
499 -> 501 ;
502 [label="SO2 <= 5.5\nsquared_error = 1.9\nsamples = 4\nvalue = 26.3"] ;
432 -> 502 ;
503 [label="squared_error = 0.0\nsamples = 1\nvalue = 28.0"] ;
502 -> 503 ;
504 [label="CH4 <= 2.0\nsquared_error = 0.8\nsamples = 3\nvalue = 25.5"] ;
502 -> 504 ;
505 [label="squared_error = 0.0\nsamples = 2\nvalue = 26.0"] ;
504 -> 505 ;
506 [label="squared_error = 0.0\nsamples = 1\nvalue = 24.0"] ;
504 -> 506 ;
}